-0.32400230246463346
0.514589531802054
-0.9066816476489331
-0.376332674334525
0.5596450714318103
-0.5553378405053533
-0.9199771667135216
0.43596090926517234
-0.9915230781886306
0.8276583181774074
-0.7121873418937477
-0.053879871658346096
-0.6747961632002196
0.3417570071905157
-0.03980362043175826
-0.6197366414605231
-0.7128954559247013
0.6177915912579964
0.90569466766429
0.6557858344845968
0.1821374176396339
-0.7262080086602232
0.25836345430371604
0.8770822645125002
-0.9466234986676132
0.4187370523213729
0.8187199142602684
-0.06702503851770593
-0.5719000452929555
-0.868998145392135
-0.6559068465556387
0.20083507847932164
0.31884533156131417
-0.2401100117460119
0.8209020902302061
-0.8415404455589622
0.9459147602775435
0.4046237863611781
-0.12670076904375102
-0.16415128327059628
0.7456583610731402
0.32953976212337144
-0.7014569590818667
-0.09816208035922586
0.20082634305285457
0.11193797418620126
-0.0834522131195809
0.17340732782163187
0.7781489939426475
-0.7114078037960817
-0.8163363667289567
-0.8082056103164809
0.1233976545632103
-0.2093419517529343
0.6677052733384357
-0.7640058835159982
0.9517625050069073
0.39757527861970865
-0.8316985915082408
-0.7675168110921414
0.4019785231734688
-0.37745543313711377
0.24757482663351155
-0.7585714614583964
-0.8452107667752452
-0.830262842721099
0.18273724156092128
0.12748744867374498
0.7965422282548857
-0.5796043987584902
0.2822420977584686
0.2749914143102371
0.9296709139069225
0.7410170171554464
-0.35589241862855964
0.5076288986239531
-0.5412067554089616
-0.6439937257574994
0.5091758916416498
0.6976739055190906
-0.281126614318295
-0.387271816560329
0.3122469956481959
-0.556580126749237
-0.6049858865743035
0.6003106875865891
0.2407012079790929
0.9446056586891812
-0.8414878480006938
0.47274073268680944
0.46607157460299564
0.5279472204659169
-0.926772921901296
-0.8825479079435508
-0.16814634269285042
-0.2209324153699457
-0.4030253771347469
-0.19772477434825841
0.7528136398122682
-0.1920639212329277
0.09129368944206848
0.40444386202360666
0.6992556119586232
0.45155799193120627
-0.4341352111749813
-0.19354156902027417
0.14508700113948503
0.9391611349840537
-0.7367085524609213
0.07119097857943306
0.10299143775441387
0.1808651683133028
0.5245575389074935
-0.9767289967496511
0.12851784754077913
-0.4285340947395945
0.7640483497013808
-0.9285156419627217
0.15575260096762022
-0.6629387008043904
0.4459510197576521
-0.06795363059081343
-0.22361494626175007
0.7953357530409438
-0.6565100870840124
-0.7424604767044939
0.0281403859479282
0.344226497658121
0.13802791393794964
-0.35834582666619336
0.48924617859787084
-0.6358739291749508
-0.4043199565907607
-0.019076147856795015
-0.036639697213260485
0.4948933155499369
-0.34274299964712396
0.4924092309211375
-0.7627513614734337
0.03717685076258358
-0.2846665128058381
0.7866186810006656
-0.3320874023444505
-0.29484716439129977
-0.3117125545189676
-0.0036106896090122584
-0.6346550266542271
0.006421821673893846
-0.06845235089385941
0.02407458807493414
-0.2772393122126912
-0.6199705259709385
0.8369669868898575
0.4593142128778935
-0.6559341283537811
-0.035940415096971504
-0.6282195835858845
0.32322985471970084
-0.6728140949855209
0.2499865976548037
-0.21097656531915615
0.5459664853646304
-0.32690731749010504
-0.026143358499523962
-0.08473958806360102
0.7088724912709912
0.0898778429646783
-0.20008174950914803
-0.8621571272040672
0.4718570633583906
0.20004706030931
0.3062088082534261
0.3658077691065363
0.586307216203435
0.4805112301368929
-0.12707175898884845
-0.22300170273256248
-0.31840442364209026
0.519734053768174
0.28243568948582404
0.28070086390096133
-0.7357067402659073
0.11689640161898797
-0.08975454943671386
-0.7640644026080727
0.7760511853762588
0.04312493395130243
0.4592567541861928
0.8496360149092365
-0.508322249664434
0.3422146965200943
0.02373514693090489
-0.956911124396882
0.4613169287328252
0.5591807172111807
-0.26171915661889333
-0.1450790155157565
-0.6065010358676809
0.45608342852005995
0.18383229529751677
-0.03653243618438752
-0.014435109134389078
0.42141183808603916
-0.20930859062233692
0.31759032357051586
-0.4462969407268438
-0.06291509082129784
-0.802206515744607
0.6659077765178916
-0.26735840165418495
0.5035983182382469
0.15432079274055782
0.24059694466899906
-0.02076149910504229
0.5964824969113751
0.6301531496440467
0.4851123681559086
0.48085315454173233
0.49924039978331586
-0.30165200245678997
0.06388043558160894
0.17071136192077457
0.2634741802752879
-0.3747083420342608
-0.20776849120217697
-0.5650935104530004
-0.24958650370033966
0.5927148300133792
-0.22528698426054694
-0.10501633667754992
-0.2552715035114904
-0.9159214369123638
-0.953369659592623
0.6325801840229259
0.28460157746994924
-0.3944889079023465
0.9123739393673279
-0.47008207927200085
-0.9294071276603425
0.36637064900637795
0.20198320900796576
0.8074333187950754
-0.2197624100810271
0.3445888791350718
-0.1889358285477544
-0.6175056128289966
0.22094164498339283
0.5347021823482595
0.8872431175799221
0.2577050956908254
-0.5892381955334407
-0.6326735082494253
-0.6648165084572597
-0.7978309522356634
-0.02913072214930887
0.11757916917874532
0.6622077764663362
-0.160994124251616
-0.9323109805390511
-0.5569936261438335
0.02894300510213463
0.22784286612731844
-0.14843159351976506
-0.8404654064968715
-0.4537493548470178
-0.3615035856517624
-0.4830833582321991
-0.23919075112936655
-0.9675722105121717
-0.4281870270639376
-0.5982991407408259
0.5633039844941325
-0.44251576280763016
-0.19100565053289456
0.418497626098844
-0.1904026373631982
-0.2675170659937565
0.1827140755547091
0.3195656081774509
-0.4499400958492812
0.25943497734875454
-0.005190772271508427
-0.06901218816666248
-0.6308708764442291
0.6793526725334134
-0.5277663095865011
0.06465741941040623
-0.42297857669394456
0.2613230757361433
0.07490641180827377
0.2834964411182074
-0.9022280615676492
0.034747251036109074
0.1481913417323585
-0.36919081120513353
-0.048015499325516915
-0.23352657878721983
0.4798395988700352
0.5331904285223519
0.2473544139347178
-0.08269827362049656
-0.6452980610564318
0.024806021875091785
0.35120050694197674
-0.26857226815238605
0.7951411158885345
0.07563464491214922
0.5884917469159282
0.4520889083150906
-0.40773206255963446
0.042044675689279214
0.07745921877600939
-0.9420894898794873
-0.776886707947309
0.5745592217343025
-0.13916807236279063
-0.7422495818650346
-0.6191786908165108
0.63132051794398
-0.5325220808999485
0.04036746927726549
0.6028099807457699
-0.010082280378660451
0.049206093704894795
-0.033469519401390015
0.38299952661919023
0.006903571522296426
-0.22734000741337085
-0.05784846620200821
0.16389890847678287
0.152670476787196
-0.6262747998883927
-0.8431939393090746
0.07369521102435746
-0.08100158618725095
-0.00713299352273032
-0.5023376849752813
-0.6012329958591967
0.47685563280261956
0.018866812843602837
0.19355903700970845
-0.8375041876804229
-0.08045250951990923
0.5230115001371162
-0.5027497563465092
-0.4091247271985062
0.1393545285759884
0.16183343208419906
-0.40777097007305646
-0.12176684560581887
0.26658008486691026
0.08837849781223962
-0.5491326179217616
-0.22451973964696456
0.4485673449220546
-0.1551838440211005
-0.33667817462787686
0.09606624429667825
-0.6250126081821687
-0.027235767257063455
0.1900005164298141
-0.5244469975915537
-0.03938002459002575
-0.6708124882720883
-0.05595819251927077
-0.48355929630541405
0.11729794768765224
0.5505803860603334
0.2757948822465181
0.09416641020737908
0.014290174060388214
-0.8810983125088376
0.6387304399583847
0.24140209286041456
0.05811705118445197
-0.16762046663588367
-0.8865675382347579
-0.7323190416913524
-0.33847149684010924
0.04404118628522658
-0.051585720189288115
-0.923749568766987
0.03359398732060689
0.12410255856498875
-0.39682650431284594
-0.1814724581968739
0.061988045295468856
-0.4341896322673115
0.6710705679479427
-0.31281890202493245
0.035141124866199774
0.49122184058644874
-0.8566714629095535
-0.05102109249808051
0.37210133993595007
0.358177608398299
0.14860044243037931
-0.4286768526211538
0.37745517713520566
0.11524355655427036
-0.026247462020835277
0.5631016184541616
0.08911427296485054
-0.10813186641822412
0.5888780515092682
0.8069115870151624
-0.25616647777229995
0.542813325828416
0.40909667274608646
-0.1402537667309201
0.17690834522118215
0.32877856149638324
0.34899887384614664
-0.13402221568525582
-0.6695281675351256
0.08541713541858677
0.5243215177286222
-0.26283315946014724
-0.29373394255763646
-0.06858790229454344
