0.994972253689228
0.8721491354980669
0.10561332552073044
-0.24746607910770957
-0.4825642185999143
-0.3825012099294196
0.6584693688761588
0.2427061636089649
-0.6720641913519031
-0.07078219990672396
0.12443209679629796
0.4552064745130663
-0.43527044857748487
0.6914316794184859
0.11026861138553934
-0.4589849680599587
-0.9089211118542622
0.7515701096945
-0.86664623355812
0.6698580773116563
-0.20111789623693666
0.5529557382172728
0.21791245050820596
0.4023113424451087
0.22448473710144456
0.4766284981648564
0.08474172170751859
-0.14079941481212577
0.3316841775491194
0.9363776916791569
0.5358167702904856
0.002967586080907525
0.541420768381355
-0.4354440665894539
0.46247817039468664
-0.41593114654987784
0.42152283213059294
0.1444222268022579
-0.34135649582305616
0.1184268707087287
-0.8559298271592298
0.9406410885613831
0.12366078262899338
-0.7970290396403572
-0.039619119812850156
0.5207210035964653
-0.5396627745356585
-0.6912367480267747
0.804253620804606
-0.9257634397423243
-0.24099929490466943
0.009507004349639692
0.32156377902934863
0.05682135195196636
0.41409728611554264
0.8075154883421395
0.014517512827696755
-0.757907158893702
-0.2120646592960196
-0.3342399881934839
-0.1408713063138448
-0.1026655083928989
-0.480918569726577
-0.665918405204932
0.6218088000799838
0.23370372717306975
-0.4445493631861527
0.5594484697776201
0.7515020337231746
0.6120288477706035
0.8912245507371847
0.874157926416422
-0.03239768778965013
0.7765675520308736
0.8369819876675249
-0.06474822112684409
0.48603013774999615
-0.6756939795560328
-0.9765769867182612
0.24113776941693987
0.9497655797853487
0.5962859273218167
-0.5537432053713618
0.1473194144011749
0.5050325453633382
0.5101770393368632
-0.6567823570591115
0.32748791543705313
0.8206135512651304
0.9089430620193781
0.6746741883781449
-0.341752342099506
-0.7231564506024304
0.5786111954700945
-0.5191255589196199
0.4557641056116629
-0.22328118036922762
-0.24583430840063458
0.7497652079903366
-0.9704769641345535
-0.8859561464777774
-0.1229318285038482
-0.4379221011583666
0.6638015302729429
0.30401420486558894
0.4044408227225006
0.208356085145741
-0.4907862851023993
-0.33897247105284667
-0.08279664115469842
0.6315748240232647
0.21068939562167965
-0.16827674469999676
0.7126984082282373
-0.9599769194693646
0.3773145067997774
0.31666100424000254
-0.1667131921928009
-0.051392202839132484
0.7145596398114605
0.15481236987592795
-0.9897091589555232
-0.38040133024702916
-0.29543236384707927
0.583658173440788
-0.7246352138836074
-0.962244917611712
-0.8148592033639597
0.1594152052877723
0.8917078971427616
0.20168131892555252
0.18137437688157232
-0.984506901536436
-0.04882844883059401
-0.5097077182560352
-0.4090022033650037
0.633380947199349
-0.23150969103671437
0.6188765367132145
0.5490132212810289
0.9003468202033783
0.8010951827455384
0.9716544337289967
-0.014274984581904682
-0.5583648268812453
0.3528291489293154
-0.1888876795744039
-0.8910489138670962
0.7722059462012392
-0.42948683705048474
-0.26434390669584296
0.650593025469496
-0.5948818777043458
0.7277754873993856
0.8282476778961141
-0.4339816531543699
-0.7304144905232691
-0.6964215681495477
0.11385474147046915
0.82818613425682
-0.7159420777565345
0.6264922343138319
-0.4169205147577172
-0.7415885942864986
0.9682938171524337
0.7926642376229895
0.11329767258987467
0.7565138973648822
0.9703214945953642
0.9823240338332644
0.18410263170491903
-0.7407268511544713
-0.8156563224732656
-0.9579142881945608
0.6645541573628959
0.7666908732048846
-0.5717276655543595
0.44405698079424716
0.1897166943708638
-0.6661360903072472
0.5037849893361747
-0.06878661998928481
0.5503602115082755
0.15942684855671785
-0.280625773392401
-0.06869364263710254
0.8217337058355587
-0.18751594267577842
-0.36844413432234335
-0.28875930496080904
0.5983751998405378
-0.25396446815336204
-0.03474956234596105
0.16388696982272932
-0.3046540483334085
0.5925049922511612
0.7111057556403422
-0.6022012306285054
0.5834448780660236
-0.320723056769309
0.9923293507660963
0.43857234592224703
0.758423522103921
0.35328946959889684
0.7309584403641712
-0.8758818419712533
0.16758904991784085
0.3313336707452812
0.5788264748044583
0.8635003460779754
-0.3597558354547725
0.7024217424132814
0.8513989272685581
-0.006404022674959986
-0.29931407387840336
0.05447756437259543
-0.7734721573978486
-0.480287546171807
-0.6392785208879849
0.9850296905968372
0.39458908734859555
-0.7207903603661762
-0.08467074983822231
-0.9644162050424586
-0.736165964141683
-0.8282658255535662
0.8981140143592936
0.5399500465427383
-0.90629376996548
0.6999922471590883
0.7020487488127137
0.7113280888229099
-0.9582972157365423
0.682825743966626
-0.14645344143837524
0.6914204163976796
0.5005980856707434
0.8913798807512823
0.46101886891881416
-0.5285437195895116
-0.4228104407191817
0.41711291876242473
-0.8543758661857359
0.10581570686772301
0.3802351246397011
-0.16631084684920883
0.6026043509268504
0.9214969783422603
0.7793434999754772
0.5108505191251436
0.16161070378627163
0.28451692724543587
-0.19313833240698153
-0.862663643736293
-0.9041837122630275
0.29668745829182863
-0.2795253050486498
0.5357252400711086
-0.018137091990118925
0.32435138889387827
-0.10946521762104411
-0.22976155071614235
-0.5867968555944352
0.8461750846640075
-0.17552752087980417
-0.3461880777177765
-0.02145832367966327
0.2811451364737868
-0.4457220909250297
0.364401718476118
-0.4259472576684207
-0.00410486500447127
-0.4617225122445522
0.19768521165882535
-0.4790856141919526
0.5197798395529221
0.3237522357584489
-0.8917430343262756
0.33906286566932187
-0.13648597077023117
-0.23480758494211518
0.10124853375232279
0.4562103682332658
-0.32574831846647234
-0.23223291670688517
-0.40359529146126705
-0.06359912736973083
0.8139263090297469
-0.5620137198854891
-0.9040392938852219
0.2687394508619084
0.7885538395850232
-0.45695905983653196
0.519191662583341
0.8493373014304426
0.049249739538720916
0.580024129726174
0.35985229014508247
0.050813397458580156
-0.5464004084568201
-0.16357479725430912
0.3798154311341009
0.36675208541835513
0.2579004369930704
-0.5989864677104116
0.8217525199484134
-0.6636226910253366
-0.4044725029670875
0.4525462091652771
0.42869054682512764
-0.2803925156976337
-0.41876461065224135
-0.25651010722817913
-0.15092969522477884
0.3187827130948926
-0.10570457241980058
0.961052218067273
0.4613351872374557
-0.1520406893353098
0.9765169583152448
0.25579724363244294
-0.9915206545040193
0.8647230515383683
-0.6432918560931876
-0.5601025174808045
-0.15911655935526559
-0.5229826732343691
0.43382556894090907
-0.9300653312056021
-0.7105631233171374
0.7284923739977579
-0.45829576393645066
-0.387574989620342
0.6400335000972714
-0.1780471903359795
0.3327256007187751
0.8021752644760197
-0.045409223513249386
-0.018075185272044103
0.6635489593420059
-0.8689974663518072
-0.9757936260121701
0.7161368796507522
-0.4191984424783314
-0.45388808230016087
0.8378400505379779
0.27176247913079876
-0.07666601843811915
-0.5077814802721677
-0.1330399054056305
0.6427981095980101
0.22347008023925174
-0.38343059495211107
-0.1647879361564818
0.7913129752920494
-0.33031818174035765
0.07524882288947254
0.399120963829228
-0.2599451745941779
-0.07076833872157207
-0.11305814767529354
0.6999859390665484
0.4145876103621384
-0.6570312687656003
0.3981740676813257
0.0490887257726752
-0.656175309199174
0.6632557402230274
0.6100604854312951
0.2590291574845116
0.9710348879119478
-0.11861819845366928
-0.22769938129560918
0.8006453666992733
-0.09818083718810922
-0.843581117390559
-0.10516483486384975
-0.19224561278566787
0.5198500031665242
-0.06695843990118933
-0.6783605952247007
0.48755154834929315
0.0895856184959134
-0.9639695026165498
0.6315474849742221
-0.5954393773270031
0.7958261781010393
-0.48318882100137883
-0.4495964326950521
0.3595459900306005
0.29810291734070915
-0.4419967315194523
0.06567375656675445
-0.2079819450109861
0.08186162800710384
-0.5464714503465343
-0.4844954150236568
-0.4881164488210432
-0.4552322012700397
0.5851712852174756
