0.0033073698854507363
-0.7286015134868657
-0.42188615025702453
-0.2885702229908035
0.4093388948680777
0.01665199668806452
0.9416365610001024
0.5687638626204853
-0.4590690481457758
0.4861341480215424
0.9416365610001024
0.026256790065082195
0.504259689525603
0.14710671855201382
-0.744891105781361
0.6645906159247663
0.8693432373874019
0.01597390820830875
-0.4396826977853195
-0.322172594889132
0.8836373493968025
0.365920379518423
-0.4641285416445499
0.6566856899317346
-0.30984315167265575
0.8745133624726198
0.839137898441469
-0.5517129528318453
0.32231713593499467
0.8836373493968025
0.8836373493968025
0.8836373493968025
0.004675962060635379
0.16365638925431591
0.3855088233318926
-0.2861939751967106
0.5268632749336342
0.46332574861122455
0.7455186189877345
0.8836373493968025
-0.03405644591273906
-0.4106367094602238
-0.5427839596628081
-0.250050549524814
-0.709268888940751
-0.560064979008118
0.8211800040429598
0.8472195759979263
0.45114113714199305
-0.4638803654053222
0.8472195759979263
0.8472195759979263
0.8472195759979263
-0.5428480232160727
-0.5406830876942685
0.8472195759979263
0.8472195759979263
0.3837581671252853
0.05769023530809935
0.48413941170755675
0.19537716890752074
0.8560925755363848
-0.33295002665958373
0.7221953971027173
0.8560925755363848
0.06579797291287326
0.8560925755363848
-0.13790839093337934
0.8171381917034344
0.8560925755363848
-0.027362258185274473
0.8560925755363848
-0.22339262962055847
0.8560925755363848
0.8560925755363848
-0.29726275893106285
0.8560925755363848
0.8560925755363848
0.10338165883239052
0.6826929574320828
-0.19226803944402707
0.177576036081542
0.5398070143263468
0.6248642260551572
0.6011094548504287
-0.22167269456889338
0.560138949208472
0.42221502206587536
0.7383042438376591
0.5265611924644049
0.4293869335143312
0.6759407959118165
0.7383042438376591
-0.6858284952597143
0.7383042438376591
0.06299503847821716
-0.18363822782390274
-0.09677019676172224
0.5254600740863776
-0.7467488733231537
0.7765977612821617
-0.0833879993714756
0.7765977612821617
0.061386712095580956
0.7765977612821617
0.7765977612821617
0.7765977612821617
0.7765977612821617
0.7765977612821617
0.33595461360742024
0.7765977612821617
0.7765977612821617
0.7765977612821617
0.6789606352514518
0.7765977612821617
0.39060080940842673
0.7765977612821617
0.6811020181407
0.7765977612821617
0.7765977612821617
0.5904628034222473
0.4881218992942034
0.7252574829001831
0.00912288650450712
0.2486006836219838
0.2792057453340287
0.38805954293877304
-0.20064542474875482
0.016443949597221383
0.8273610799759954
0.8273610799759954
0.19447518078387857
0.8273610799759954
0.8273610799759954
0.8273610799759954
0.8273610799759954
0.8273610799759954
0.5636007271366571
0.2566611445580487
0.20689031735080124
0.6459625309732647
0.8654235237545038
0.053427687465743924
0.8654235237545038
-0.4837022899599951
0.8191473633658067
0.054061172712989415
0.7819093475152955
0.07485716541101807
0.07102352468936778
0.8654235237545038
-0.2937770352055446
0.6518376837538346
0.49927670148889775
0.8654235237545038
0.8654235237545038
-0.15817114447967415
0.8654235237545038
-0.3052869053258399
0.8654235237545038
-0.5838646482139758
0.1839641349448608
0.06684051861844045
0.09444617011580718
0.4653962148671025
0.8181464812323058
0.4164998203579374
0.8181464812323058
0.23176033270611873
0.8181464812323058
-0.5181546001382733
0.12272880402263636
-0.5657319810705891
0.8181464812323058
0.2118886064353105
0.3512203358123395
-0.04700165831151397
-0.5072027709387472
0.33207374453018484
0.542292604359869
-0.855186228218168
0.09896197904657492
-0.16936812171371685
0.33582192769423924
-0.0955650409308017
0.8023413249460974
0.11299204622902285
0.2703110957232975
-0.4126464170337332
0.15441781258474366
0.35738301748401674
-0.25676245421694527
-0.06187724390634486
-0.49378978348917385
0.3593226047483195
-0.7920171687572594
-0.20410616336118936
0.8642727844466468
0.6633646684528735
0.827805639293817
0.07511312697237955
-0.35465385138076816
-0.44221532682034936
0.17043747039006246
-0.5769050543663535
-0.6837085596263697
0.5436489026333153
-0.3088858173253009
0.11858189147092334
0.3895896942868194
0.8790872010838416
-0.10070165504718522
-0.541731209768541
-0.15746182799516986
0.04937260839507723
-0.38322357630992276
-0.38767202930273326
0.571810958445806
0.6812320177861844
0.8229760947180897
0.291288451368971
0.8650851174345486
0.5019842154251071
0.5791222472706326
-0.3866182418259598
0.8650851174345486
0.24602902950754035
0.4331648847211379
0.8650851174345486
0.8650851174345486
0.22684165444566312
-0.045843075004344924
0.2452964301829989
-0.08323656626737039
-0.4519609999453705
0.4900459633613114
0.851795371538064
0.8650851174345486
-0.5375468558731049
-0.09894355351432745
-0.314552521128893
0.8511230285096592
0.5138082781668604
0.33860058021529704
-0.7208348930956621
0.5003470805426171
0.3652174842797744
0.2430531288208134
-0.15199016334908594
-0.5149212286128864
-0.8316565718449564
-0.3743915144468658
0.8934939610507218
0.5993539978158329
0.6173895133026164
-0.7915838244313502
-0.28866309941716317
0.12821659559999582
-0.1201936415623638
-0.8730877565683726
0.3351834207627346
-0.45488533384523583
-0.33981145771537924
0.1340127678247698
0.505808398941018
0.5574310735643574
-0.6882306108471999
0.0847869868773505
-0.298637799032189
0.8973367952475196
-0.05296388827860501
-0.19364611995238326
0.1388887300558558
-0.43492726974704815
0.6202441371097785
0.12892516284896102
-0.26671419600206797
-0.8129355788179994
0.7720045613431471
0.6883787159354345
-0.9114692901129889
-0.9340423391058498
0.6802524445312798
0.5015035341239595
-0.13185354419524342
0.47580131764019623
-0.32352788037275354
-0.23473354919183345
0.154031199207014
-0.7021235188733089
0.7761055178278485
0.5619584518891839
0.11447575748764129
-0.00279148268779097
-0.40086318399746235
-0.6944471583685711
0.588958850432962
-0.1257972101216088
0.3870843371562752
0.8767551256448943
0.07437654840319526
0.7425166645464504
-0.1783039473175997
0.7971694305481308
0.3507025630090037
0.43751360407268247
0.1675203422781317
0.8537153834570321
0.6725452012381045
0.7930458108083026
-0.6300027681214483
0.7868182214823302
0.4677424136828895
0.5078324888171117
0.259419124207354
0.3718247618006757
-0.2513049146561502
-0.6421468084563632
0.8537153834570321
0.284409223988775
0.22905634550380025
0.11991740305814491
0.37649921017941107
-0.5294657228248445
0.8096356836094457
-0.09688792705212972
0.8096356836094457
0.7094651835882196
-0.8510853051077688
0.45488148364788467
0.3714853581971798
0.8582589162508291
-0.25900142508998764
0.1382662538537742
-0.5701616968582084
-0.944198647905976
0.5930257424706683
0.09384949823540183
0.4920924310092657
0.8237244991860414
0.05076277745013946
-0.48966051315035763
-0.7695633386163475
-0.4654057728299349
0.21086143848934658
-0.5110098027391518
0.7039747949165956
0.7209072855969051
-0.4715718558439751
0.3645164827651771
-0.4915734000287293
-0.3856995938358211
0.5641351879779762
0.35210731397890216
-0.6061479316421395
-0.4711091952997065
0.786615665585818
0.37592304780564945
0.43049253607420135
0.5625814034339182
0.34541315845074705
-0.31347613031827304
-0.6836903237543502
-0.1444514699869977
-0.2580514482513119
-0.11366701667803443
-0.5899320028337846
-0.9103077112758547
0.45677331374645047
0.7590249075963743
-0.49949311211109226
0.6868551383795504
0.4321733408971177
0.6410484326614575
0.8208061354248527
-0.7853285673632625
0.49792766653846804
0.7590249075963743
-0.4064005747981936
0.7951779044082458
-0.579662296326721
0.6774441172501849
0.329928374490537
0.7638978844037675
-0.579991002802976
0.33063455092533045
-0.37093613661823244
0.13629711637778294
-0.47219293812123025
0.8053567340067546
-0.8175402459761322
0.7638978844037675
-0.4402132649146627
0.42543158168410783
0.7638978844037675
0.15652882318776565
-0.588752375433984
0.6598198201397029
0.444071153881525
0.7259901725703594
0.4157423163653146
0.4157423163653146
0.4157423163653146
0.5813218604738467
0.1392242420587589
-0.11088745470750112
0.4157423163653146
0.14183695445906466
-0.8098979815694419
-0.43297548877094066
-0.9320558822791606
0.4157423163653146
-0.34431582779184017
0.6205262051271411
-0.7000889210162292
-0.40885493970131986
-0.2125813777403772
0.4157423163653146
0.4157423163653146
0.292660092272404
