-0.9394509826065921
0.3418970006275395
0.7551588335615269
0.7736678858965074
0.6323825442085778
0.2480996159639021
-0.6301313275274679
0.5631880166548389
-0.6373720321142808
-0.2089097624869322
-0.25879923264071286
-0.3662391302849644
-0.50482475980939
0.7664367140969438
0.690855331750472
0.18233227116131678
-0.8824684536518012
-0.8394837080511246
-0.46654790830811954
-0.05299822680590903
0.3818777770900993
-0.1254395749054017
-0.566144142171752
0.10866127348443333
-0.0019000550483913475
-0.9011879802977496
0.723364489941244
-0.8383493850801828
-0.9645321801489157
-0.7931243986928495
-0.0061154062864509145
-0.967831710093076
0.874997268527751
-0.20520837926911473
0.3633877007778394
0.9435597644897267
0.5477775130282467
-0.9281807962343915
-0.14994209583358062
-0.445418275195726
-0.7959531103625904
0.16088038385354325
-0.6066617636163167
0.3533441095677926
-0.1582612542383737
0.832968832424645
-0.7097620187278049
-0.8120899109522411
-0.34239473884531163
-0.8736596714590077
-0.3437324750112353
-0.20420600184119597
0.8550385398555901
-0.9750603576759523
-0.3259661264221151
-0.45847398607485906
0.025200007337378535
0.533836744216184
-0.11177600876962944
-0.019675726581099822
-0.25894334235171546
0.45106164643174596
0.16478511668199086
0.7164343073162762
0.3558542437423285
-0.22695243882455501
-0.9265933992030854
0.20841531258908286
-0.5112362268606395
-0.6754737878916891
-0.1497496999016972
-0.5090867699936595
0.4253379833820537
-0.6835068486977208
0.03546469723381893
0.10639078515011252
-0.48699457759224035
-0.13600399532436827
-0.3210024108714557
-0.014423261851346195
0.6959121697953826
0.16352398534113158
0.4736674181087232
-0.6852109354334796
0.8982491443869106
0.24091885345774625
-0.16072036470553064
-0.0800141321583665
-0.27858994526674263
0.7929912418007447
-0.35466668260445783
0.5346481044741747
-0.7384250201342014
-0.7435526249593315
-0.4540152550812234
0.02957708979084542
-0.5337031226255768
0.025220623039373904
0.38059709813697695
0.7951891253989902
-0.8572886879913447
-0.1635386659254523
-0.8912311924611985
0.10836573037310986
-0.4768972137509697
0.8903278367948094
-0.7225902836426179
0.001180712696483339
0.2916432922123805
-0.21867418346282885
-0.18655695496523572
0.325058043108189
0.3123590235750774
0.2673852650450675
-0.90638262168031
0.6542310160643147
0.4737417855494537
-0.8613041760372705
0.22682887573023683
-0.3929314783826104
0.3747993989039058
0.08674551096147856
-0.16992802893705558
-0.5649671590448708
0.30286237858386444
0.7195815350976327
-0.6127746100931378
-0.41414661348049464
0.31824522398388405
-0.9079765041946417
-0.2106054547573281
-0.3626771651270006
0.756189159983222
0.960106090639464
-0.33935965674525953
-0.6656807273524655
-0.35584671165533044
0.7478401508816156
0.7317854151008676
0.003961400164541688
0.004336197637574872
0.5063577558770154
-0.8079796743156351
0.1418308391234708
-0.5281381645592705
-0.9046957068902534
-0.019843124994277966
0.02727082121288083
-0.5837830521698326
-0.9334914090749546
-0.23804097431010263
0.2994680941350244
0.011314546521111888
-0.49378022866653254
-0.603227524217136
0.311034567813706
-0.37680701792380594
-0.7982046838769188
-0.9935832543548548
-0.8791680973509418
-0.3808824322422256
-0.36230644280236163
0.11248089877118299
-0.0021048767181330026
-0.8090877977150978
-0.17653343557934653
0.5217740604866622
0.054846612077862074
-0.2825528119168547
0.5850982381484321
0.24872771057433254
-0.2188251035291915
0.8259926933259415
-0.1766666648862259
-0.587554445939744
0.15532709592288804
-0.29523962621581323
-0.9074829936198636
0.027533186209726217
0.29333651719936443
0.8377271455850196
-0.19756380863472722
-0.8277801773975038
-0.16344282163326082
-0.7758347527784687
-0.49942320392345757
-0.486035592970182
-0.4102467795794362
-0.21546859531335802
0.6015325991731683
-0.35428172295811283
0.6679052515741533
-0.9556132665303954
-0.38046065765711584
0.5791906258747126
-0.5822914177792395
-0.3068701222676109
-0.2991734346379901
-0.3588544588130665
-0.3111822465279119
-0.9097046642713732
0.01618919808802991
-0.22904810915022805
-0.15503892246351872
-0.8859851069703742
0.6224603370810193
-0.48450416283060777
0.11859306225203683
0.6428239152132883
-0.39843233535817746
-0.05251524165376961
-0.4052132821419181
-0.6855447417623233
-0.2964812309517123
-0.8489730247981253
-0.11157634594209692
0.32337693911425075
0.2663845834447038
0.8396768531816521
-0.3901842577633617
-0.4533838894516109
0.11126206220797245
-0.6590044612113712
0.34177251185816104
0.2350737956416349
-0.7000971523562189
-0.1486575472471922
-0.3111638585134722
0.30200521313588613
-0.6260062600856808
-0.05137482126614364
-0.49870409054963993
0.8866770191995381
0.8798053859488071
0.18578588992118494
-0.44908031088662353
0.14233531119570184
-0.24791540468204162
0.6585367695949251
0.3437607648995719
-0.36517658717482826
0.10329635216796614
0.4259536528902589
0.16025328345089696
-0.22747098069720748
0.7818570713511326
-0.23729252432080633
-0.3030455137300945
-0.3872505823211226
0.06006526894452617
-0.0327864253222674
-0.2102653605634529
0.8871527309573768
-0.4086902207586813
-0.35718721728126307
-0.3982325540736949
-0.014525108622420823
0.3324351310514857
-0.0481240687930581
-0.939079118449663
0.8229496960789517
0.00461627346037851
-0.1892706928905167
-0.027022034895386876
-0.6698749908231876
0.5280855867114367
0.1902825650506782
-0.010712652234885333
0.059099301079839385
0.4128689044104961
-0.24175336910458445
-0.41915200251596313
0.1381022970335307
0.3048711510227638
0.2751470128760483
-0.21754418859498198
0.042590195908177725
-0.2859761236243868
0.42055174974407294
-0.39073567357798855
0.6583650217310555
0.07047846053671536
0.39600681570410706
0.24222630265545889
0.4813666750694605
-0.40090198777519276
0.25799184496460514
-0.16233946767700463
-0.23556342742015432
-0.8675372591596814
-0.023979486606040375
-0.25124753950033396
0.8706611747158796
0.4593374623636873
0.29192157595801105
0.07770879609199788
0.17531026330653884
-0.4360160566684226
0.3296611465328507
0.014945435430248514
0.03333761371449935
0.09055123135252222
0.0807526171435288
0.005879880931765446
0.251420895430235
-0.8222549511831215
-0.020034264589232634
0.007881031539350214
0.341593557111614
0.10157377024591713
0.05027297689431636
-0.035272826166827455
0.17761949580045872
-0.533627493301283
-0.4519532781229031
0.030767119260771147
-0.0194758177993494
-0.5731573033930111
-0.0324269191806755
0.09094856060722346
-0.5095965624130181
0.09798864633851419
0.34220083165664006
-0.04959612941519804
0.5599104396898161
-0.7135368851816773
-0.29774518369747527
-0.10039006504104865
0.4181564978978499
0.22836812726110625
0.011754728009656629
0.27092160659550385
-0.1912315246403391
-0.4086861164460785
0.36399464392723574
0.03683549671588073
0.10101709359583717
0.3523303276285802
-0.6263561173316226
-0.6433334145371233
0.6989276087309656
-0.008881680058519857
-0.03753893657764949
-0.07345539034596793
0.5012562488611738
-0.8822589170362097
0.5277643512510947
0.008387807787010109
0.40394634156728493
0.2208003717500989
-0.07115302212093844
-0.1660635243455147
-0.9676479223493127
-0.1166857307541998
-0.6789835195159785
0.023276812205207466
-0.017295963927870812
0.6290000765580689
0.0010375686691706765
0.25986956800601446
-0.6983727092342851
0.032984830460628674
-0.41604487279121627
0.05969783746798347
0.17938854568612334
-0.33522614783101495
-0.1762616190675965
0.015003754535196905
0.11282830930369743
-0.15139918098326008
0.008866998834451112
0.21915571009824525
0.6432854523903238
0.18930966547381672
0.12205506643427953
0.01974687403278515
0.08359984277574316
-0.5262302602243045
-0.26751255404876967
0.2144595487680148
-0.9308878010808875
-0.016491199029937818
-0.27714818790499907
-0.017889631838385503
0.07547553401573669
0.6226837554980584
-0.12531408044493988
-0.004812956477039516
-0.28851481339307233
-0.22021110262707314
-0.03136813938421324
-0.18964170909741523
-0.6755767297793135
-0.30436845624141107
0.032580542889053446
-0.1327449050586322
-0.009244028470578994
-0.6402446913277186
0.10556981803670262
0.2538248141290129
0.1926812656668888
-0.009227458900200988
-0.14673658176270388
0.01274310550911312
0.3497285155906735
0.9305662378767806
0.14299437285428232
-0.009034478415700648
0.32845722682899575
-0.502128054042765
-0.02250890046521429
-0.023361912646678334
-0.6796685358739183
0.6547595589229164
-0.2802238537181006
-0.020324109188068665
-0.0026532462119041433
-0.10897508176269674
-0.6729435420864545
0.06524313595032671
